MTP
version = 1.1.0
potential_name = MTP_l2k3
scaling = 2.073600000000000e-02
L = 2
scaling_map = LK
species_count = 1
potential_tag = 
radial_basis_type = RBChebyshev_sss
	min_dist = 2.000000000000000e+00
	max_dist = 6.000000000000000e+00
	radial_basis_size = 8
	radial_funcs_count = 9
shift_coeffs = {-8.504688132726557e-01}
scal_coeffs = {2.000528929274952e+00, 1.663184652126557e+00, 2.890052205300616e+00, 2.211491012478039e+00, 1.481195883339633e+00, 1.402282325549571e+00, 1.910815639364833e+00, 1.394427968249401e+00, 3.427951530917653e+00, 2.974965709549373e+00, 2.426427073223365e+00, 1.410757516913556e+00, 2.150414483484494e+00, 1.624133097773333e+00, 1.248820824260956e+00, 1.294768207204440e+00, 1.772901251131870e+00, 1.369772190531507e+00}
	radial_coeffs
		0-0
			{5.270267032794619e-01, 1.766394272750337e+00, 1.128006219728701e+00, -9.698492017707111e-01, 7.832019220252412e-01, -8.500729474285039e-02, -6.067469704388093e-01, -2.889236505593749e-02, 5.394421552503814e-01}
			{-1.839550505518061e-01, 3.426495910165941e-01, 6.125248080189820e-01, -6.563026340168523e-01, 1.893892076837799e-01, -2.131925495468782e-01, 5.510504505626214e-02, -4.041979999443358e-02, 1.000000000000000e+00}
			{3.420540541607245e-01, 1.053644532490742e+00, 3.546384323844941e-01, -9.952954548133988e-01, 3.565662489736882e-01, 5.087383865108397e-01, -1.045595983859259e+00, 2.745634134353758e-01, 1.000000000000000e+00}
			{3.349826378809425e-01, 4.925295607594237e-01, 6.753049453313588e-01, -6.409824663000488e-01, 2.490917540404725e-01, 5.876710574746957e-01, -4.948771174356686e-01, 4.151202688275210e-01, 1.000000000000000e+00}
			{5.217743322999386e-01, -5.713323021478106e-01, 3.213759527330085e-01, -3.664539766752782e-01, 1.958999370659110e-02, -7.127551659028206e-02, 1.121577301985963e-03, -1.374515756838845e-02, 1.000000000000000e+00}
			{2.059318631058658e+00, -1.627830863439562e-01, -2.402987803386462e+00, -4.817522948077299e-01, 1.080286633488710e+00, -2.061496637584883e-01, -9.760487522172046e-01, 3.090351916324925e-01, 1.000000000000000e+00}
			{-1.056574084847810e+00, -1.275310822359646e+00, -6.104147242938978e-01, -4.650395533080449e-01, -4.070281733176473e-01, -8.236478465678214e-02, 2.058542213820359e-01, 3.472367695004175e-01, 1.000000000000000e+00}
			{-4.566541148023076e-01, -3.534877976294930e-01, -7.823147005102936e-02, 7.522447547997063e-01, 2.417970014413058e-01, -1.735889371554784e+00, 1.285663331537937e-01, 1.416219958254559e-01, 1.000000000000000e+00}
			{1.886025091123551e+00, 6.462709927510253e-01, -9.110877708871530e-02, 7.718722145531347e-01, 5.909803026010383e-01, -8.968876762056576e-01, 1.022686558404935e+00, -9.452920899241667e-01, 1.000000000000000e+00}
alpha_moments_count = 238
alpha_index_basic_count = 30
alpha_index_basic = {{0, 0, 0, 0}, {1, 1, 0, 0}, {1, 0, 1, 0}, {1, 0, 0, 1}, {2, 2, 0, 0}, {2, 1, 1, 0}, {2, 1, 0, 1}, {2, 0, 2, 0}, {2, 0, 1, 1}, {2, 0, 0, 2}, {3, 0, 0, 0}, {4, 1, 0, 0}, {4, 0, 1, 0}, {4, 0, 0, 1}, {5, 2, 0, 0}, {5, 1, 1, 0}, {5, 1, 0, 1}, {5, 0, 2, 0}, {5, 0, 1, 1}, {5, 0, 0, 2}, {6, 0, 0, 0}, {7, 1, 0, 0}, {7, 0, 1, 0}, {7, 0, 0, 1}, {8, 2, 0, 0}, {8, 1, 1, 0}, {8, 1, 0, 1}, {8, 0, 2, 0}, {8, 0, 1, 1}, {8, 0, 0, 2}}
alpha_index_times_count = 436
alpha_index_times = {{0, 0, 1, 30}, {0, 30, 1, 31}, {10, 30, 1, 32}, {20, 30, 1, 33}, {0, 10, 1, 34}, {10, 34, 1, 35}, {20, 34, 1, 36}, {0, 20, 1, 37}, {20, 37, 1, 38}, {10, 10, 1, 39}, {10, 39, 1, 40}, {20, 39, 1, 41}, {10, 20, 1, 42}, {20, 42, 1, 43}, {20, 20, 1, 44}, {20, 44, 1, 45}, {1, 1, 1, 46}, {2, 2, 1, 46}, {3, 3, 1, 46}, {1, 11, 1, 47}, {2, 12, 1, 47}, {3, 13, 1, 47}, {1, 21, 1, 48}, {2, 22, 1, 48}, {3, 23, 1, 48}, {11, 11, 1, 49}, {12, 12, 1, 49}, {13, 13, 1, 49}, {11, 21, 1, 50}, {12, 22, 1, 50}, {13, 23, 1, 50}, {21, 21, 1, 51}, {22, 22, 1, 51}, {23, 23, 1, 51}, {4, 4, 1, 52}, {5, 5, 2, 52}, {6, 6, 2, 52}, {7, 7, 1, 52}, {8, 8, 2, 52}, {9, 9, 1, 52}, {4, 14, 1, 53}, {5, 15, 2, 53}, {6, 16, 2, 53}, {7, 17, 1, 53}, {8, 18, 2, 53}, {9, 19, 1, 53}, {4, 24, 1, 54}, {5, 25, 2, 54}, {6, 26, 2, 54}, {7, 27, 1, 54}, {8, 28, 2, 54}, {9, 29, 1, 54}, {14, 14, 1, 55}, {15, 15, 2, 55}, {16, 16, 2, 55}, {17, 17, 1, 55}, {18, 18, 2, 55}, {19, 19, 1, 55}, {14, 24, 1, 56}, {15, 25, 2, 56}, {16, 26, 2, 56}, {17, 27, 1, 56}, {18, 28, 2, 56}, {19, 29, 1, 56}, {24, 24, 1, 57}, {25, 25, 2, 57}, {26, 26, 2, 57}, {27, 27, 1, 57}, {28, 28, 2, 57}, {29, 29, 1, 57}, {0, 46, 1, 58}, {0, 47, 1, 59}, {0, 48, 1, 60}, {0, 49, 1, 61}, {0, 50, 1, 62}, {0, 51, 1, 63}, {10, 46, 1, 64}, {10, 47, 1, 65}, {10, 48, 1, 66}, {10, 49, 1, 67}, {10, 50, 1, 68}, {10, 51, 1, 69}, {20, 46, 1, 70}, {20, 47, 1, 71}, {20, 48, 1, 72}, {20, 49, 1, 73}, {20, 50, 1, 74}, {20, 51, 1, 75}, {0, 52, 1, 76}, {0, 53, 1, 77}, {0, 54, 1, 78}, {0, 55, 1, 79}, {0, 56, 1, 80}, {0, 57, 1, 81}, {10, 52, 1, 82}, {10, 53, 1, 83}, {10, 54, 1, 84}, {10, 55, 1, 85}, {10, 56, 1, 86}, {10, 57, 1, 87}, {20, 52, 1, 88}, {20, 53, 1, 89}, {20, 54, 1, 90}, {20, 55, 1, 91}, {20, 56, 1, 92}, {20, 57, 1, 93}, {46, 46, 1, 94}, {46, 47, 1, 95}, {46, 48, 1, 96}, {46, 49, 1, 97}, {46, 50, 1, 98}, {46, 51, 1, 99}, {47, 47, 1, 100}, {47, 48, 1, 101}, {47, 49, 1, 102}, {47, 50, 1, 103}, {47, 51, 1, 104}, {48, 48, 1, 105}, {48, 49, 1, 106}, {48, 50, 1, 107}, {48, 51, 1, 108}, {49, 49, 1, 109}, {49, 50, 1, 110}, {49, 51, 1, 111}, {50, 50, 1, 112}, {50, 51, 1, 113}, {51, 51, 1, 114}, {46, 52, 1, 115}, {46, 53, 1, 116}, {46, 54, 1, 117}, {46, 55, 1, 118}, {46, 56, 1, 119}, {46, 57, 1, 120}, {47, 52, 1, 121}, {47, 53, 1, 122}, {47, 54, 1, 123}, {47, 55, 1, 124}, {47, 56, 1, 125}, {47, 57, 1, 126}, {48, 52, 1, 127}, {48, 53, 1, 128}, {48, 54, 1, 129}, {48, 55, 1, 130}, {48, 56, 1, 131}, {48, 57, 1, 132}, {49, 52, 1, 133}, {49, 53, 1, 134}, {49, 54, 1, 135}, {49, 55, 1, 136}, {49, 56, 1, 137}, {49, 57, 1, 138}, {50, 52, 1, 139}, {50, 53, 1, 140}, {50, 54, 1, 141}, {50, 55, 1, 142}, {50, 56, 1, 143}, {50, 57, 1, 144}, {51, 52, 1, 145}, {51, 53, 1, 146}, {51, 54, 1, 147}, {51, 55, 1, 148}, {51, 56, 1, 149}, {51, 57, 1, 150}, {52, 52, 1, 151}, {52, 53, 1, 152}, {52, 54, 1, 153}, {52, 55, 1, 154}, {52, 56, 1, 155}, {52, 57, 1, 156}, {53, 53, 1, 157}, {53, 54, 1, 158}, {53, 55, 1, 159}, {53, 56, 1, 160}, {53, 57, 1, 161}, {54, 54, 1, 162}, {54, 55, 1, 163}, {54, 56, 1, 164}, {54, 57, 1, 165}, {55, 55, 1, 166}, {55, 56, 1, 167}, {55, 57, 1, 168}, {56, 56, 1, 169}, {56, 57, 1, 170}, {57, 57, 1, 171}, {1, 1, 1, 172}, {1, 2, 1, 173}, {1, 3, 1, 174}, {2, 2, 1, 175}, {2, 3, 1, 176}, {3, 3, 1, 177}, {4, 172, 1, 178}, {5, 173, 2, 178}, {6, 174, 2, 178}, {7, 175, 1, 178}, {8, 176, 2, 178}, {9, 177, 1, 178}, {14, 172, 1, 179}, {15, 173, 2, 179}, {16, 174, 2, 179}, {17, 175, 1, 179}, {18, 176, 2, 179}, {19, 177, 1, 179}, {24, 172, 1, 180}, {25, 173, 2, 180}, {26, 174, 2, 180}, {27, 175, 1, 180}, {28, 176, 2, 180}, {29, 177, 1, 180}, {11, 11, 1, 181}, {11, 12, 1, 182}, {11, 13, 1, 183}, {12, 12, 1, 184}, {12, 13, 1, 185}, {13, 13, 1, 186}, {4, 181, 1, 187}, {5, 182, 2, 187}, {6, 183, 2, 187}, {7, 184, 1, 187}, {8, 185, 2, 187}, {9, 186, 1, 187}, {14, 181, 1, 188}, {15, 182, 2, 188}, {16, 183, 2, 188}, {17, 184, 1, 188}, {18, 185, 2, 188}, {19, 186, 1, 188}, {24, 181, 1, 189}, {25, 182, 2, 189}, {26, 183, 2, 189}, {27, 184, 1, 189}, {28, 185, 2, 189}, {29, 186, 1, 189}, {21, 21, 1, 190}, {21, 22, 1, 191}, {21, 23, 1, 192}, {22, 22, 1, 193}, {22, 23, 1, 194}, {23, 23, 1, 195}, {4, 190, 1, 196}, {5, 191, 2, 196}, {6, 192, 2, 196}, {7, 193, 1, 196}, {8, 194, 2, 196}, {9, 195, 1, 196}, {14, 190, 1, 197}, {15, 191, 2, 197}, {16, 192, 2, 197}, {17, 193, 1, 197}, {18, 194, 2, 197}, {19, 195, 1, 197}, {24, 190, 1, 198}, {25, 191, 2, 198}, {26, 192, 2, 198}, {27, 193, 1, 198}, {28, 194, 2, 198}, {29, 195, 1, 198}, {172, 172, 1, 199}, {173, 173, 2, 199}, {174, 174, 2, 199}, {175, 175, 1, 199}, {176, 176, 2, 199}, {177, 177, 1, 199}, {172, 181, 1, 200}, {173, 182, 2, 200}, {174, 183, 2, 200}, {175, 184, 1, 200}, {176, 185, 2, 200}, {177, 186, 1, 200}, {172, 190, 1, 201}, {173, 191, 2, 201}, {174, 192, 2, 201}, {175, 193, 1, 201}, {176, 194, 2, 201}, {177, 195, 1, 201}, {181, 181, 1, 202}, {182, 182, 2, 202}, {183, 183, 2, 202}, {184, 184, 1, 202}, {185, 185, 2, 202}, {186, 186, 1, 202}, {181, 190, 1, 203}, {182, 191, 2, 203}, {183, 192, 2, 203}, {184, 193, 1, 203}, {185, 194, 2, 203}, {186, 195, 1, 203}, {190, 190, 1, 204}, {191, 191, 2, 204}, {192, 192, 2, 204}, {193, 193, 1, 204}, {194, 194, 2, 204}, {195, 195, 1, 204}, {4, 4, 1, 205}, {5, 5, 1, 205}, {6, 6, 1, 205}, {4, 5, 1, 206}, {5, 7, 1, 206}, {6, 8, 1, 206}, {4, 6, 1, 207}, {5, 8, 1, 207}, {6, 9, 1, 207}, {5, 5, 1, 208}, {7, 7, 1, 208}, {8, 8, 1, 208}, {5, 6, 1, 209}, {7, 8, 1, 209}, {8, 9, 1, 209}, {6, 6, 1, 210}, {8, 8, 1, 210}, {9, 9, 1, 210}, {4, 205, 1, 211}, {5, 206, 2, 211}, {6, 207, 2, 211}, {7, 208, 1, 211}, {8, 209, 2, 211}, {9, 210, 1, 211}, {14, 205, 1, 212}, {15, 206, 2, 212}, {16, 207, 2, 212}, {17, 208, 1, 212}, {18, 209, 2, 212}, {19, 210, 1, 212}, {24, 205, 1, 213}, {25, 206, 2, 213}, {26, 207, 2, 213}, {27, 208, 1, 213}, {28, 209, 2, 213}, {29, 210, 1, 213}, {14, 14, 1, 214}, {15, 15, 1, 214}, {16, 16, 1, 214}, {14, 15, 1, 215}, {15, 17, 1, 215}, {16, 18, 1, 215}, {14, 16, 1, 216}, {15, 18, 1, 216}, {16, 19, 1, 216}, {15, 15, 1, 217}, {17, 17, 1, 217}, {18, 18, 1, 217}, {15, 16, 1, 218}, {17, 18, 1, 218}, {18, 19, 1, 218}, {16, 16, 1, 219}, {18, 18, 1, 219}, {19, 19, 1, 219}, {4, 214, 1, 220}, {5, 215, 2, 220}, {6, 216, 2, 220}, {7, 217, 1, 220}, {8, 218, 2, 220}, {9, 219, 1, 220}, {14, 214, 1, 221}, {15, 215, 2, 221}, {16, 216, 2, 221}, {17, 217, 1, 221}, {18, 218, 2, 221}, {19, 219, 1, 221}, {24, 214, 1, 222}, {25, 215, 2, 222}, {26, 216, 2, 222}, {27, 217, 1, 222}, {28, 218, 2, 222}, {29, 219, 1, 222}, {24, 24, 1, 223}, {25, 25, 1, 223}, {26, 26, 1, 223}, {24, 25, 1, 224}, {25, 27, 1, 224}, {26, 28, 1, 224}, {24, 26, 1, 225}, {25, 28, 1, 225}, {26, 29, 1, 225}, {25, 25, 1, 226}, {27, 27, 1, 226}, {28, 28, 1, 226}, {25, 26, 1, 227}, {27, 28, 1, 227}, {28, 29, 1, 227}, {26, 26, 1, 228}, {28, 28, 1, 228}, {29, 29, 1, 228}, {4, 223, 1, 229}, {5, 224, 2, 229}, {6, 225, 2, 229}, {7, 226, 1, 229}, {8, 227, 2, 229}, {9, 228, 1, 229}, {14, 223, 1, 230}, {15, 224, 2, 230}, {16, 225, 2, 230}, {17, 226, 1, 230}, {18, 227, 2, 230}, {19, 228, 1, 230}, {24, 223, 1, 231}, {25, 224, 2, 231}, {26, 225, 2, 231}, {27, 226, 1, 231}, {28, 227, 2, 231}, {29, 228, 1, 231}, {205, 205, 1, 232}, {206, 206, 2, 232}, {207, 207, 2, 232}, {208, 208, 1, 232}, {209, 209, 2, 232}, {210, 210, 1, 232}, {205, 214, 1, 233}, {206, 215, 2, 233}, {207, 216, 2, 233}, {208, 217, 1, 233}, {209, 218, 2, 233}, {210, 219, 1, 233}, {205, 223, 1, 234}, {206, 224, 2, 234}, {207, 225, 2, 234}, {208, 226, 1, 234}, {209, 227, 2, 234}, {210, 228, 1, 234}, {214, 214, 1, 235}, {215, 215, 2, 235}, {216, 216, 2, 235}, {217, 217, 1, 235}, {218, 218, 2, 235}, {219, 219, 1, 235}, {214, 223, 1, 236}, {215, 224, 2, 236}, {216, 225, 2, 236}, {217, 226, 1, 236}, {218, 227, 2, 236}, {219, 228, 1, 236}, {223, 223, 1, 237}, {224, 224, 2, 237}, {225, 225, 2, 237}, {226, 226, 1, 237}, {227, 227, 2, 237}, {228, 228, 1, 237}}
alpha_scalar_moments = 175
alpha_moment_mapping = {0, 10, 20, 30, 31, 32, 33, 34, 35, 36, 37, 38, 39, 40, 41, 42, 43, 44, 45, 46, 47, 48, 49, 50, 51, 52, 53, 54, 55, 56, 57, 58, 59, 60, 61, 62, 63, 64, 65, 66, 67, 68, 69, 70, 71, 72, 73, 74, 75, 76, 77, 78, 79, 80, 81, 82, 83, 84, 85, 86, 87, 88, 89, 90, 91, 92, 93, 94, 95, 96, 97, 98, 99, 100, 101, 102, 103, 104, 105, 106, 107, 108, 109, 110, 111, 112, 113, 114, 115, 116, 117, 118, 119, 120, 121, 122, 123, 124, 125, 126, 127, 128, 129, 130, 131, 132, 133, 134, 135, 136, 137, 138, 139, 140, 141, 142, 143, 144, 145, 146, 147, 148, 149, 150, 151, 152, 153, 154, 155, 156, 157, 158, 159, 160, 161, 162, 163, 164, 165, 166, 167, 168, 169, 170, 171, 178, 179, 180, 187, 188, 189, 196, 197, 198, 199, 200, 201, 202, 203, 204, 211, 212, 213, 220, 221, 222, 229, 230, 231, 232, 233, 234, 235, 236, 237}
species_coeffs = {2.144178326537735e+00}
moment_coeffs = {-1.569307932141892e+00, -1.908913053571550e+00, 1.676018947269748e-02, -1.046503594541965e+00, 6.543219236501961e-01, -1.300678284528629e+00, 1.197038703255634e+00, 1.033337120074616e+00, 6.499504037455397e-01, -2.220580759789555e+00, -3.124289827393451e-02, 7.504991422286792e-01, -9.850620402240336e-02, -3.236027808956315e-02, 8.329791218864308e-01, 1.267076063738977e+00, -7.501227814737772e-01, 5.483751270697598e-01, 1.740267938999401e-01, -6.266019601560866e-01, 3.029196538921014e+00, 6.257828355035153e-01, 1.006703095109028e-01, 3.361330366997009e-01, 3.404868814244976e-01, -3.316335077394159e+00, -4.320301501189349e+00, -4.688949817749526e-01, -5.577851567239813e-01, 4.713193973552125e+00, 5.044604059327757e+00, 1.607172201128253e+00, -1.239527205445990e+00, -3.286992242213455e-01, 2.074182190166668e-01, -1.341201144592223e+00, 1.080900962673686e-01, -8.605407996591711e-01, -1.962438439470006e-02, -7.260859053416927e-01, -5.075117042730455e-01, 1.397382121156154e-01, 4.542571859053026e-01, -1.669697005996542e+00, -1.432663895524933e+00, 1.424454682075996e+00, -2.634189849353881e-02, -5.166225355825415e-02, 2.814307439659041e-01, 1.703595366403711e+00, 8.061335493554927e-03, -4.597143431431996e-01, 1.373043841591916e-01, -7.820660275949085e-01, -3.743280519697926e-01, -2.033348752760511e+00, -1.704211511730364e-01, -1.400989589257741e+00, -3.948940371096792e-01, 1.173439672725236e+00, 1.401880458149457e+00, -1.458146041684331e+00, 1.135923277287979e+00, -1.636524313708922e-01, -1.129789376988986e+00, -7.039724822524207e-01, 3.668819334320368e-01, -1.216685576270060e+00, 1.904970209023180e+01, 6.749354395233331e+00, 2.758375943327795e+00, 2.282622100870972e+00, 6.457458940475691e-01, 1.350711540769255e+01, 7.877163538322332e+00, 1.205610868236103e+01, 2.263608912784425e+00, -9.692187772083968e-01, 6.191754721536087e-01, 3.037116618071677e+00, 3.951246733858577e-01, 1.475547880507627e-01, 9.582068711424916e-01, 1.123873230483208e+00, 8.982160582873198e-02, -5.199787533213974e-01, 3.273113235382075e-01, -1.427590892252959e-01, 7.069660996849042e+00, 8.819964784784126e+00, -7.058356029358165e+00, 3.908618148759327e+00, -3.832875776687247e+00, 1.451164602628544e+00, 1.225880863386238e+01, 1.567762715123700e+01, -1.390224142653934e+01, 4.595169852383571e+00, -9.492280733410453e+00, 3.566389217869512e+00, 4.806528580428008e-01, 1.280238084612084e+00, -2.681329775209958e+00, 1.545642679575389e+00, -1.264380566495324e+00, 1.281696464510221e+00, 2.498986567268947e+00, 2.975297312041070e+00, -2.591529036870941e+00, 1.329282410343331e+00, -1.591193012582674e+00, 2.228613462268732e-01, 2.443518481568450e-01, 2.405795059069654e-02, -2.430763902054382e-01, -9.645078383691420e-01, 3.740858731971609e-01, 2.636524509502040e-01, -1.419231538755568e+00, -2.699791310761827e-01, -2.443402139981631e-01, -1.709501125039479e+00, 6.205811290266079e-01, 5.450769314712680e-01, 2.964840436917695e-01, 1.054651030566894e+00, -1.220435217343730e+00, -1.058590507129352e+00, 1.563032415859784e-01, -3.274267499812458e-01, 3.520224222090425e-01, -7.154151115370479e-02, 1.356553840502539e+00, 1.699577959022792e-01, -2.120359669831317e-01, -1.389529782548004e+00, -7.384194335633362e-01, 1.588139186680298e+00, 1.760680682838403e+00, -1.046830898245112e+00, 2.302726384014248e-02, 2.171962979612955e-01, -4.295330996518375e-01, -7.330349626079276e-01, -3.348480646572118e-01, -5.080978436787977e+00, -2.904961638425747e+00, 7.505241643489368e-01, 5.556056317397986e-01, -7.720025864692730e-01, 4.658131344845619e-01, 1.372872063199343e+00, 1.077948267022987e+00, -4.617688799031714e-01, -1.212154435550060e+00, 1.349939488187162e+01, 1.030492387951630e-01, 4.204328982212266e-01, 2.491869779777369e-01, -1.464784552196142e-01, -2.724276273773947e+00, 2.599530881488549e+00, 2.241680004191247e+00, 1.165012727774410e+00, -1.053608524875018e-01, -1.127518172347717e+00, -2.624537599456009e+00, -1.499186726700779e+00, -8.635430374528557e-01, 1.437365690171978e+00, 5.464591622646808e-01, 9.517272594143438e-01, 3.737584449448991e-01, -3.416309484746469e-01, 6.247168357371771e-02}